digraph Tree {
node [shape=box] ;
0 [label="source_Direct <= 0.5\ngini = 0.5\nsamples = 21226\nvalue = [10585, 10641]"] ;
1 [label="country_New Zealand <= 0.5\ngini = 0.5\nsamples = 16689\nvalue = [8470, 8219]"] ;
0 -> 1 [labeldistance=2.5, labelangle=45, headlabel="True"] ;
2 [label="country_Luxembourg <= 0.5\ngini = 0.5\nsamples = 16625\nvalue = [8456, 8169]"] ;
1 -> 2 ;
3 [label="country_Hong Kong <= 0.5\ngini = 0.5\nsamples = 16601\nvalue = [8454, 8147]"] ;
2 -> 3 ;
4 [label="(...)"] ;
3 -> 4 ;
9657 [label="(...)"] ;
3 -> 9657 ;
9680 [label="browser_Safari <= 0.5\ngini = 0.153\nsamples = 24\nvalue = [2, 22]"] ;
2 -> 9680 ;
9681 [label="(...)"] ;
9680 -> 9681 ;
9686 [label="(...)"] ;
9680 -> 9686 ;
9687 [label="purchase_value <= 53.5\ngini = 0.342\nsamples = 64\nvalue = [14, 50]"] ;
1 -> 9687 ;
9688 [label="age <= 23.0\ngini = 0.229\nsamples = 53\nvalue = [7, 46]"] ;
9687 -> 9688 ;
9689 [label="(...)"] ;
9688 -> 9689 ;
9692 [label="(...)"] ;
9688 -> 9692 ;
9701 [label="age <= 25.5\ngini = 0.463\nsamples = 11\nvalue = [7, 4]"] ;
9687 -> 9701 ;
9702 [label="(...)"] ;
9701 -> 9702 ;
9703 [label="(...)"] ;
9701 -> 9703 ;
9708 [label="country_Ecuador <= 0.5\ngini = 0.498\nsamples = 4537\nvalue = [2115, 2422]"] ;
0 -> 9708 [labeldistance=2.5, labelangle=-45, headlabel="False"] ;
9709 [label="purchase_value <= 68.5\ngini = 0.498\nsamples = 4519\nvalue = [2114, 2405]"] ;
9708 -> 9709 ;
9710 [label="age <= 43.5\ngini = 0.499\nsamples = 4204\nvalue = [1996, 2208]"] ;
9709 -> 9710 ;
9711 [label="(...)"] ;
9710 -> 9711 ;
11890 [label="(...)"] ;
9710 -> 11890 ;
12163 [label="browser_FireFox <= 0.5\ngini = 0.469\nsamples = 315\nvalue = [118, 197]"] ;
9709 -> 12163 ;
12164 [label="(...)"] ;
12163 -> 12164 ;
12303 [label="(...)"] ;
12163 -> 12303 ;
12324 [label="age <= 30.0\ngini = 0.105\nsamples = 18\nvalue = [1, 17]"] ;
9708 -> 12324 ;
12325 [label="gini = 0.0\nsamples = 1\nvalue = [1, 0]"] ;
12324 -> 12325 ;
12326 [label="gini = 0.0\nsamples = 17\nvalue = [0, 17]"] ;
12324 -> 12326 ;
}